computer 0.079084 -0.81504 1.7901 0.91653 0.10797 -0.55628 -0.84427 -1.4951 0.13418 0.63627 0.35146 0.25813 -0.55029 0.51056 0.37409 0.12092 -1.6166 0.83653 0.14202 -0.52348 0.73453 0.12207 -0.49079 0.32533 0.45306 -1.585 -0.63848 -1.0053 0.10454 -0.42984 3.181 -0.62187 0.16819 -1.0139 0.064058 0.57844 -0.4556 0.73783 0.37203 -0.57722 0.66441 0.055129 0.037891 1.3275 0.30991 0.50697 1.2357 0.1274 -0.11434 0.20709
engineering -0.30847 0.23461 0.11819 0.50325 -0.4622 0.33465 -0.24591 -0.90292 0.39837 -0.3622 1.0792 0.22552 -0.60442 -0.30231 -1.41 -0.22967 -0.075232 1.8487 -0.23882 -0.21088 1.3641 0.4565 -0.75138 -1.007 -0.029306 -0.94489 -0.86208 -1.4729 -0.98162 0.25306 2.6589 -0.48034 0.020104 -1.063 0.71672 0.5565 -0.42515 1.3095 1.4427 0.51156 -0.022319 -1.0668 0.39002 0.16765 0.045271 0.2151 0.49155 0.78136 -0.31409 0.05833
science -0.60334 1.0577 -0.30452 0.056728 0.00062269 -0.15874 -0.39343 -1.6816 0.25751 0.096477 0.22256 0.40022 -0.13319 0.50095 -0.31653 -0.13437 0.36205 1.1403 -0.46058 0.78453 1.1051 0.67427 0.33348 -0.19985 0.8804 -1.5153 -1.0876 -0.97803 -1.0249 -0.08135 2.6487 -0.47125 -0.45275 -2.0287 -0.4091 0.26637 -0.66804 1.1231 0.89049 0.20298 -0.024961 -0.46865 0.25623 0.37514 -0.12434 0.72878 0.90596 0.83551 0.00022837 0.44761
software 0.40093 -1.1683 1.2586 1.3243 -0.60614 -0.36914 -1.2668 -1.7872 0.67804 1.1791 0.72633 0.7432 -0.32346 -0.31177 -0.025236 0.072382 -0.84757 0.70602 0.88824 -0.67657 0.54001 -0.11735 -0.90053 0.4227 0.21735 -0.5767 -0.40095 -1.1345 0.064297 -0.44729 3.3038 -1.0716 -0.37677 -0.48321 -0.11032 0.27934 -0.51331 0.22437 0.3481 -0.6764 1.27 -0.37939 -0.1754 0.94066 -0.12009 0.40097 0.93773 0.57618 0.30619 0.30187
